34 100
34 -0.006392741 -0.011272326 0.048748396 0.07540188 -0.01074962 -0.0044602538 -9.9054e-05 0.21211673 -0.22190185 -0.04759193 -0.04475605 -0.14645474 0.16422033 0.113439724 0.06280329 -0.100094765 0.18802223 0.048462246 -0.13072102 -0.3100186 0.051317327 -0.024604384 0.09534433 -0.041638084 0.015376344 0.06506128 -0.014045414 0.16075468 -0.061163306 0.058758095 0.101849146 -0.08083971 -0.012872667 -0.20354219 -0.074711636 0.03521247 0.1893357 -0.11029381 -0.21131516 -0.009884366 -0.059464555 -0.07693708 -0.01414891 0.15377577 0.12919475 -0.08992016 -0.18372685 -0.108285375 0.03435256 -0.011626322 -0.039023515 -0.09016353 -0.15545228 -0.02020898 -0.1997829 -0.015314266 0.014630288 -0.0887597 -0.04269868 0.042617872 0.107555754 -0.1309011 0.26100507 0.16409959 -0.17150326 0.25241894 -0.00097623974 0.23655306 -0.19445698 0.17098859 0.12409015 0.27687398 0.0695473 0.025063109 0.1212718 0.10178661 0.25492218 0.14892244 -0.09243886 -0.02909103 -0.15570693 -0.1432118 -0.15651524 0.18300268 -0.21568461 -0.06176284 0.010688856 -0.022375524 0.09425899 0.062112752 0.11702986 0.08355817 0.07273882 -0.028459834 0.20117427 0.08400156 0.12546587 -0.13305284 0.108110525 0.019257655
1 -0.049532466 -0.14430545 0.107306205 -0.00988218 -0.025326153 -0.107059754 -0.15038426 0.22428107 -0.16756625 -0.10676708 -0.06329054 -0.22404474 -0.01277393 0.15685503 0.02339125 0.13186693 0.20336404 -0.039961513 0.101245694 -0.4204452 0.1467202 0.059591185 0.25503945 -0.17749885 -0.09849324 0.19675888 -0.08760896 0.16273236 -0.057986025 0.12443749 0.1969858 -0.058623746 0.031147521 -0.12091025 -0.065871276 0.06317207 0.108141884 0.020676339 -0.27241167 0.11182575 0.20528927 -0.13140167 -0.17875265 0.12631048 0.10451451 -0.07900699 -0.17992239 -0.1585207 0.075675935 0.03917052 -0.01726757 -0.11155364 0.020367546 0.10833299 -0.1612405 0.07608082 -0.032843415 -0.07919557 0.009152131 0.07442796 -0.06926312 -0.09198812 0.16032247 0.19006895 -0.1214325 0.18104659 -0.05935007 0.024552952 0.07001374 0.14713886 0.07538605 0.23014356 -0.02527722 -0.0019827916 0.1776667 0.02490976 0.29529542 -0.06601577 0.07103881 -0.026503447 -0.1130753 -0.10477418 -0.082198605 0.15913947 -0.19687429 -0.06218038 -0.13395312 0.02313201 0.10603682 0.11702995 0.16581859 0.07070864 0.06143709 -0.09414928 -0.041494813 0.10820636 0.27004302 -0.031188775 0.10484417 0.114951156
33 0.005357492 0.006652161 0.030875314 0.07694366 0.017082576 0.025104584 0.0133362645 0.21395728 -0.24129607 -0.033691417 -0.059393756 -0.14096949 0.20111036 0.105824865 0.080482244 -0.13438177 0.21602696 0.077310696 -0.16526693 -0.33594197 0.03516513 -0.051238857 0.08853332 -0.04795353 0.029387347 0.056394726 -0.0009978609 0.1725533 -0.06625708 0.06952288 0.110787965 -0.090719245 -0.040466473 -0.22153437 -0.08057532 0.027454397 0.18531673 -0.119508736 -0.2013493 -0.025217747 -0.08893161 -0.0831272 0.019465327 0.17311344 0.13988619 -0.088734984 -0.17106935 -0.12139596 0.024486149 -0.030963833 -0.033588793 -0.10711545 -0.18374111 -0.05066852 -0.23771778 -0.026171334 0.008219849 -0.091014124 -0.057629857 0.028622694 0.14019872 -0.14938553 0.29600668 0.18377817 -0.18770637 0.27959347 0.022112291 0.27602118 -0.24300042 0.17749812 0.12934846 0.27461073 0.090926506 0.045413487 0.1032247 0.113539904 0.24965075 0.18427818 -0.11319427 -0.023709374 -0.16576211 -0.16075826 -0.18685639 0.18165612 -0.21102178 -0.07551074 0.02656045 -0.02716303 0.11281556 0.046587735 0.117797434 0.089411624 0.08988908 -0.03320614 0.2347638 0.08887157 0.14603825 -0.14965314 0.12256994 -0.0030916813
3 -0.02659683 -0.038979203 0.04983424 0.03391121 0.009795372 -0.03679936 -0.040950406 0.22552818 -0.20324664 -0.07061431 -0.05362039 -0.15687293 0.10392652 0.12844333 0.05928657 -0.026589923 0.2361703 0.033645038 -0.047536884 -0.39693165 0.09393833 -0.012325961 0.19251464 -0.08725087 -0.051337715 0.12725276 -0.04273629 0.17952469 -0.07055474 0.099616155 0.14861666 -0.06637947 -0.014349113 -0.16974509 -0.05847611 0.05076217 0.13135211 -0.05925329 -0.22938935 0.039053015 0.05201002 -0.11537258 -0.058721345 0.15871204 0.13443154 -0.08325617 -0.16357607 -0.1489555 0.05157879 -0.013417251 -0.01938874 -0.10285025 -0.09113775 -0.0033485962 -0.20296319 0.019808808 -0.018344846 -0.08646426 -0.026795682 0.04451569 0.050382584 -0.11409409 0.2203861 0.16585414 -0.13679814 0.20819129 -0.007758859 0.17104128 -0.10256087 0.12971209 0.09974225 0.21865752 0.032284502 0.045853235 0.13298604 0.072143994 0.24109119 0.089079306 -0.031878304 -0.027983602 -0.1404214 -0.115079835 -0.12342621 0.16480283 -0.18513589 -0.07222563 -0.0018418639 0.0077949176 0.099070676 0.050239854 0.12430555 0.06622538 0.071338065 -0.0641173 0.10887832 0.07636947 0.20249301 -0.100496665 0.100337595 0.03697901
2 -0.04493552 -0.084768884 0.047934555 0.0147380205 0.014083354 -0.051566113 -0.07256 0.20529515 -0.19421452 -0.06477495 -0.069766514 -0.15784341 0.032241765 0.14478707 0.032037824 0.034181032 0.22319305 0.02657235 0.031140992 -0.42159852 0.12410245 0.00459235 0.24986732 -0.115668125 -0.07408783 0.15813598 -0.068613954 0.18537605 -0.09349197 0.12472969 0.18793042 -0.045131695 0.010905656 -0.14708526 -0.047729935 0.04281767 0.07212246 -0.008191907 -0.22956072 0.063630275 0.12714304 -0.13890435 -0.122049935 0.15460211 0.1229643 -0.07875862 -0.14348458 -0.14925472 0.074086614 -0.008526871 -0.0108202165 -0.089146815 -0.01230889 0.023322186 -0.16357823 0.032798 -0.052312125 -0.09781354 -0.017084803 0.043385137 0.004057445 -0.10465042 0.16844456 0.15751813 -0.122003265 0.17147364 -0.010790437 0.11001141 -0.023562491 0.12992398 0.06803193 0.19506952 -0.007574548 0.03285596 0.14540717 0.05357139 0.24122645 0.02598282 0.032091767 -0.044684086 -0.12214726 -0.110551804 -0.09188088 0.14818154 -0.16964927 -0.078836225 -0.028931253 0.020181414 0.083251365 0.05723251 0.1330089 0.04720605 0.0702858 -0.084591284 0.022479516 0.061175477 0.23746979 -0.053423215 0.09677658 0.069679156
32 -0.009835056 -0.017421637 0.05338672 0.04751499 -0.020656602 -0.009441897 -0.019664899 0.21779205 -0.21570715 -0.059012696 -0.05773847 -0.15941316 0.1386392 0.099779405 0.0573682 -0.08146806 0.18770422 0.029841425 -0.10095128 -0.34667218 0.0477284 -0.016785426 0.114237025 -0.057699654 -0.016222946 0.08217235 -0.016477462 0.13676335 -0.046174612 0.07188863 0.1166238 -0.099179134 -0.014909138 -0.1895526 -0.06960406 0.04522388 0.17306921 -0.08205455 -0.19848132 -0.005723387 -0.01701648 -0.09550544 -0.034415223 0.1581038 0.11942492 -0.097593665 -0.17535894 -0.117221445 0.032009106 -0.009988452 -0.031882357 -0.11086904 -0.12320768 0.00844277 -0.21125612 0.0062457966 0.020496761 -0.09689231 -0.04438613 0.033956096 0.09085709 -0.12610395 0.25699946 0.16440348 -0.15507945 0.24041225 -0.003343906 0.20235269 -0.16363046 0.14678007 0.10948031 0.25513676 0.07007235 0.03004945 0.11934478 0.10173423 0.23545134 0.12387465 -0.07052545 -0.01783319 -0.13945994 -0.1465314 -0.14206113 0.15791318 -0.20058687 -0.061375618 -0.02125158 -0.009449106 0.09301357 0.07255026 0.13117568 0.0880819 0.058435023 -0.033388425 0.15985334 0.088252865 0.13023633 -0.10954657 0.100791074 0.01725195
4 -0.031655792 -0.13158725 0.079746485 -0.01373534 -0.018706478 -0.09345617 -0.12500595 0.20995668 -0.16937852 -0.09644194 -0.05277026 -0.18747383 -0.0024054288 0.155859 0.022887824 0.10766483 0.22256024 -0.017866913 0.09211416 -0.4364286 0.14401877 0.042527497 0.2649668 -0.15592521 -0.09868384 0.19390422 -0.08620896 0.17314065 -0.068192564 0.119921595 0.1973253 -0.032192763 0.0226059 -0.1105495 -0.06423994 0.05707373 0.075232804 -0.001952257 -0.2651736 0.0879075 0.18895687 -0.1279347 -0.13804199 0.11372121 0.107138336 -0.064919904 -0.16532494 -0.15580207 0.068565674 0.022643983 -0.018877497 -0.101205535 0.0040158136 0.08783994 -0.1677339 0.04857427 -0.054559328 -0.09428283 0.0024225495 0.058180433 -0.04738239 -0.09469163 0.16625622 0.18600129 -0.121188685 0.17307909 -0.060370084 0.040028915 0.04192877 0.1225347 0.07348562 0.22335838 -0.035022255 0.011792199 0.17948021 0.028750898 0.2941988 -0.03682399 0.05764109 -0.020695504 -0.09970725 -0.106206454 -0.09617308 0.1722274 -0.19092862 -0.07230453 -0.09143818 0.0313557 0.095206074 0.100229256 0.14691097 0.06347823 0.056667365 -0.08608672 -0.028473686 0.09151913 0.27950776 -0.046303414 0.110818654 0.10621771
14 -0.0060322313 -0.057073113 0.0650694 0.054674838 -0.0053501283 -0.026714984 -0.037018575 0.2160718 -0.21685858 -0.06677643 -0.059052393 -0.15521754 0.12205699 0.12049678 0.057044864 -0.037971474 0.21668638 0.03492029 -0.06677426 -0.3823703 0.08337873 -0.006859658 0.16221209 -0.09373752 -0.030070266 0.118408196 -0.044680975 0.1770815 -0.073122 0.09703351 0.13399112 -0.059206612 -0.011092324 -0.18384223 -0.06547895 0.03425981 0.13023181 -0.07034297 -0.22265017 0.020421766 0.02336223 -0.1023633 -0.04251547 0.14843725 0.12363441 -0.087848835 -0.15804392 -0.1201785 0.053055126 -0.008844001 -0.0340209 -0.092434995 -0.0874692 -0.0023226666 -0.19303964 0.015834417 -0.025025142 -0.07980299 -0.029866107 0.048137736 0.07208495 -0.1146372 0.21241073 0.17333685 -0.14062569 0.21650699 -0.01616067 0.18018404 -0.12022353 0.13196225 0.09724137 0.22316255 0.041021377 0.025984619 0.11390392 0.075675696 0.24216467 0.087413 -0.03762336 -0.03307366 -0.1349745 -0.12303907 -0.14140065 0.16273355 -0.18274195 -0.06676504 -0.0067923563 0.010759548 0.10449482 0.05862577 0.12646244 0.067059115 0.05891553 -0.038292497 0.119555466 0.07376353 0.16299577 -0.1042214 0.10184686 0.029633142
24 -0.012505651 -0.00757109 0.054895356 0.080315426 0.00022826501 0.0036799435 -0.00071328273 0.21056063 -0.22508107 -0.040878136 -0.049114004 -0.15412557 0.17720608 0.103057116 0.07509184 -0.09828791 0.18676157 0.04235625 -0.1333355 -0.3218387 0.05072985 -0.01746396 0.10068772 -0.054020345 0.012955373 0.07780998 -0.017709866 0.1504843 -0.051466446 0.053664003 0.11812702 -0.090924285 -0.016138598 -0.18679589 -0.072443 0.039057747 0.17712231 -0.10138564 -0.20174845 -0.017961372 -0.056960423 -0.07423887 0.0016174095 0.15175246 0.1253163 -0.08997132 -0.17561859 -0.10993383 0.025712535 -0.02306424 -0.034639403 -0.09636218 -0.15419759 -0.019104157 -0.21030983 -0.011143733 0.015331219 -0.082316324 -0.031047124 0.030451989 0.102553084 -0.13917151 0.27879417 0.18069552 -0.18476868 0.26012594 -0.008449212 0.24609265 -0.2035234 0.1773221 0.1123036 0.27803233 0.07807812 0.03614971 0.11500417 0.093045704 0.25228107 0.14242493 -0.09878949 -0.023980372 -0.16397995 -0.16105036 -0.16206904 0.18550809 -0.2141107 -0.06076467 -0.0012974038 -0.025493212 0.102816865 0.07106733 0.12293864 0.090323545 0.07438401 -0.031842623 0.20014642 0.09821839 0.14360395 -0.12092516 0.11755302 0.014979377
6 -0.045348674 -0.16842423 0.10975469 -0.02345646 -0.06502736 -0.1262858 -0.18205358 0.20160536 -0.12586653 -0.106580175 -0.05012924 -0.21369696 -0.028716601 0.14687859 0.008249161 0.16919334 0.17104487 -0.09955425 0.14875434 -0.40112698 0.14943202 0.09485106 0.2222769 -0.18545066 -0.1120255 0.20486605 -0.09588348 0.1614598 -0.03182457 0.095133424 0.17896318 -0.057502296 0.04642565 -0.08132136 -0.07823955 0.07810938 0.12275393 0.027460748 -0.28241938 0.119329415 0.21797593 -0.102636546 -0.1913953 0.110132776 0.095565446 -0.09025986 -0.21270499 -0.14312766 0.076914586 0.062431667 -0.030360194 -0.0858161 0.038194004 0.1572482 -0.13993755 0.07921422 -0.040858548 -0.09324767 0.03726116 0.08291011 -0.09594357 -0.06888405 0.15043922 0.191473 -0.119538695 0.15612331 -0.0968896 -0.024432074 0.11433113 0.13651463 0.08099031 0.2546393 -0.053204156 -0.044641968 0.19396967 0.019480743 0.3086837 -0.11268738 0.09441509 -0.008587488 -0.084258236 -0.09951598 -0.066324145 0.16914251 -0.2037859 -0.044532463 -0.19886056 0.03915637 0.11529834 0.16333821 0.16591212 0.08882482 0.051640354 -0.071905226 -0.0641521 0.11207682 0.23914398 0.00015123982 0.12843214 0.13010235
7 -0.03623357 -0.18073611 0.13073073 -0.052966233 -0.06401094 -0.13321148 -0.19521834 0.20955923 -0.12944897 -0.11849183 -0.04847964 -0.22773792 -0.038889848 0.1557266 0.009450667 0.19236779 0.1818719 -0.091942586 0.16117664 -0.4338927 0.1550523 0.09767755 0.26095325 -0.20280726 -0.13726917 0.2252826 -0.091565534 0.14498398 -0.030166855 0.1148392 0.17659608 -0.059141867 0.053580023 -0.07633737 -0.06413559 0.07805071 0.10707032 0.03653513 -0.2915286 0.11828828 0.2380623 -0.11865305 -0.21601306 0.12226396 0.09196745 -0.09565049 -0.21151057 -0.15979941 0.07274853 0.061863508 -0.038749773 -0.10328392 0.05043988 0.15320733 -0.13401355 0.09391026 -0.052925155 -0.0966945 0.03756256 0.0908791 -0.116701074 -0.07805931 0.1348379 0.19666483 -0.11806697 0.15817039 -0.10387893 -0.0421388 0.14073667 0.1342916 0.07996176 0.25126094 -0.061655916 -0.026110608 0.19512016 0.023515087 0.31325394 -0.14370121 0.10040348 -0.007901512 -0.07273105 -0.08563987 -0.053048365 0.16436732 -0.20574461 -0.038479812 -0.2056511 0.04390164 0.111095704 0.1612562 0.1834547 0.077559814 0.052231986 -0.083942175 -0.106102645 0.12378004 0.27861878 -0.003465435 0.12320453 0.12653695
30 0.015458545 0.014556449 0.040185492 0.09549424 0.008369654 0.00916518 0.014334735 0.23253547 -0.25134823 -0.04336572 -0.05403721 -0.1449528 0.20277585 0.10095088 0.08484959 -0.1482715 0.1950388 0.05979765 -0.16325673 -0.31349567 0.034531027 -0.06296129 0.07511956 -0.038448315 0.023838773 0.0408328 -0.0159997 0.16946861 -0.052250445 0.054739825 0.10105671 -0.08788639 -0.03508409 -0.22689205 -0.06757039 0.022695282 0.19690667 -0.12830974 -0.20579071 -0.03128766 -0.11280903 -0.08675332 0.037123047 0.17332624 0.13063274 -0.0946292 -0.15650424 -0.1081571 0.019435244 -0.024303848 -0.02828619 -0.09797286 -0.17150408 -0.035633236 -0.22752412 -0.026660101 0.017075635 -0.07081186 -0.05395171 0.029452026 0.14785348 -0.13899554 0.2844081 0.17488132 -0.18727955 0.2789274 0.025468765 0.29039916 -0.25288388 0.17853613 0.11980475 0.27875757 0.09566827 0.048139077 0.109867334 0.11690736 0.22792257 0.2054706 -0.11713205 -0.028125038 -0.17249523 -0.1451324 -0.19109865 0.17859934 -0.20840602 -0.06954182 0.029288454 -0.029002124 0.11760795 0.049668603 0.12463814 0.08334732 0.068429254 -0.019770848 0.24785247 0.07247903 0.10509881 -0.15270571 0.095475666 -0.0055244365
9 -0.01995597 -0.07753032 0.07991876 0.027011614 -0.01114138 -0.038190868 -0.068502225 0.23276596 -0.19507784 -0.075903825 -0.06541761 -0.18251923 0.09027199 0.12814991 0.043911878 -0.0132532455 0.20885025 0.012220191 -0.024003059 -0.38630423 0.08953784 0.0098838555 0.16905406 -0.097151704 -0.04117971 0.13803354 -0.056617443 0.18222153 -0.06258101 0.100236736 0.1446705 -0.070499144 -0.0010512439 -0.17577907 -0.077534646 0.037340038 0.14547741 -0.068676956 -0.241474 0.036155235 0.04232363 -0.09423509 -0.06971223 0.1442144 0.11219326 -0.09966387 -0.16808248 -0.13589749 0.044871192 0.008464884 -0.025439626 -0.10495902 -0.079052985 0.026265666 -0.18952565 0.018574577 -0.019454814 -0.08403428 -0.010233614 0.058961708 0.033637404 -0.122046955 0.2331025 0.18769988 -0.15594645 0.22180879 -0.016330311 0.15369155 -0.10080878 0.15710326 0.10969289 0.2597364 0.032066844 0.009968721 0.13854492 0.06921017 0.2638578 0.053939383 -0.03291411 -0.023678383 -0.13824221 -0.12068043 -0.13130637 0.18126932 -0.2028795 -0.06202124 -0.040879264 0.0022477733 0.09978868 0.086021684 0.14018513 0.075385466 0.075591624 -0.06190555 0.10469374 0.09358644 0.20085107 -0.08501108 0.120654695 0.060299292
8 -0.037947584 -0.052763615 0.038011003 0.028333368 0.006340442 -0.045144442 -0.061342586 0.20046087 -0.21577854 -0.064716466 -0.07020614 -0.1535592 0.06902062 0.13302734 0.058003556 0.0047322097 0.24353224 0.040339164 -0.014215927 -0.42795107 0.11728742 -0.0030035619 0.22539082 -0.10274268 -0.04714478 0.14734651 -0.06886192 0.1786227 -0.0810135 0.117520414 0.17632388 -0.0469048 0.0061932974 -0.16128014 -0.051451616 0.0389346 0.08781196 -0.02681265 -0.22380361 0.04038221 0.07634052 -0.12786071 -0.07793205 0.15922795 0.11934467 -0.08565792 -0.15528601 -0.14603448 0.068037026 -0.012725681 -0.019341031 -0.09544336 -0.06567653 0.014770118 -0.183428 0.027144082 -0.02925121 -0.09585787 -0.028559731 0.05102384 0.035367075 -0.1033846 0.19635326 0.16864891 -0.12847711 0.19612749 -0.00090122304 0.14693773 -0.06701926 0.13193691 0.081494614 0.20590296 0.0058826646 0.03857899 0.1464177 0.07485515 0.24890687 0.06973127 -0.0031708144 -0.039178763 -0.13046266 -0.12225759 -0.11026784 0.17099616 -0.17752926 -0.07153423 -0.009576359 0.018682498 0.09396675 0.047797862 0.13617098 0.06615763 0.06936461 -0.068057194 0.061661184 0.062462963 0.21714237 -0.0814687 0.09238905 0.06285806
28 0.0029057038 -0.011930046 0.05884846 0.060471356 0.0041146935 -0.010664002 -0.008568484 0.23726925 -0.22729182 -0.06529626 -0.048822258 -0.17468332 0.16297995 0.10912475 0.06421807 -0.08485699 0.22151993 0.044105336 -0.112282984 -0.35994574 0.06639817 -0.02121129 0.1180914 -0.06471884 -0.009589322 0.089765325 -0.021624943 0.15969397 -0.051127017 0.06926967 0.11255501 -0.08480648 -0.018084502 -0.21274999 -0.07961436 0.026984625 0.18776697 -0.09574671 -0.22489965 0.0036824015 -0.032953516 -0.09422848 -0.0038087438 0.16811235 0.13507257 -0.08877835 -0.17815746 -0.12834492 0.034145314 -0.014478233 -0.029113607 -0.0969955 -0.13774759 -0.02613667 -0.2159375 -0.0114960745 0.016099103 -0.079934165 -0.041059766 0.043538816 0.09364069 -0.13968426 0.26264235 0.18250573 -0.16415928 0.25635907 -0.0025511617 0.22370893 -0.18338881 0.15757422 0.10720213 0.25013438 0.07532498 0.034158852 0.11506965 0.08938576 0.25012636 0.14093664 -0.07930316 -0.019534986 -0.15761442 -0.13922817 -0.15261717 0.16357704 -0.19624558 -0.060865913 0.012933226 -0.011323718 0.10191719 0.05390179 0.13297091 0.08213742 0.076748595 -0.030317215 0.18138567 0.07593781 0.14857073 -0.11541897 0.10073611 0.025616955
5 -0.04772471 -0.14209375 0.10598898 -0.012894059 -0.05221575 -0.10658483 -0.16019797 0.19528136 -0.1295171 -0.08217295 -0.058971625 -0.20692925 -0.022716202 0.14839202 0.0049322927 0.13119526 0.1613502 -0.060673136 0.11983432 -0.38059154 0.1380223 0.085577 0.21128984 -0.16984087 -0.11380479 0.19339891 -0.0827062 0.16219358 -0.039287634 0.086686224 0.16048695 -0.065909974 0.034585524 -0.08508948 -0.076238364 0.07315618 0.12183194 0.007920667 -0.27344057 0.11279965 0.20092127 -0.11194342 -0.17533125 0.12414431 0.10505109 -0.07797671 -0.2050997 -0.1583144 0.076057106 0.034182996 -0.034454413 -0.098427184 0.037416697 0.1334478 -0.14982352 0.084882975 -0.025551934 -0.09067885 0.033283345 0.083272815 -0.06785662 -0.08525026 0.14411648 0.18236752 -0.10804161 0.15921256 -0.08228025 0.020602752 0.08437218 0.15021768 0.07098903 0.24140131 -0.029405093 -0.03286814 0.1890768 0.038001105 0.29607657 -0.0835757 0.06960468 -0.022768125 -0.105788924 -0.1038029 -0.080428444 0.16469948 -0.20554836 -0.040328335 -0.1694513 0.022755869 0.112186044 0.14933077 0.1607085 0.080371946 0.04799736 -0.08889054 -0.052654188 0.12123579 0.24953721 -0.0045472626 0.123400345 0.12469947
11 -0.056490846 -0.20713998 0.13077953 -0.044945184 -0.05338028 -0.1405099 -0.21304479 0.21848772 -0.123519376 -0.111393206 -0.06693179 -0.23572743 -0.073435724 0.1758178 -0.0052172714 0.21497686 0.163423 -0.10558578 0.18648192 -0.43121964 0.18116745 0.11692524 0.26734632 -0.20023088 -0.1388747 0.24125339 -0.0955651 0.1444395 -0.041085776 0.11214842 0.20216711 -0.059021547 0.05029506 -0.0829388 -0.06453729 0.083658054 0.108979546 0.045875378 -0.30532995 0.12458013 0.26228738 -0.13287017 -0.22990657 0.121010266 0.105160065 -0.085072055 -0.22018802 -0.16275194 0.095809035 0.068777315 -0.033386853 -0.09859768 0.08312726 0.17811397 -0.12045998 0.1079202 -0.05543021 -0.09903952 0.036081355 0.08847004 -0.122163154 -0.055216726 0.11549069 0.19714294 -0.102817416 0.14421342 -0.11132007 -0.048148137 0.17524265 0.1492915 0.0797063 0.254163 -0.07637473 -0.045192417 0.20917062 -0.0054803295 0.32045802 -0.16005832 0.13083489 -0.018101716 -0.07330862 -0.09935568 -0.059943322 0.15097398 -0.20515457 -0.038297947 -0.22890979 0.044310026 0.09869989 0.16286603 0.18780321 0.0808905 0.057648126 -0.08885946 -0.13132548 0.13205291 0.26381555 0.011690274 0.10685828 0.15397242
20 -0.026217932 -0.08409145 0.06981283 0.008056714 0.0017766692 -0.067888185 -0.0738975 0.2135948 -0.19480118 -0.08439941 -0.06873005 -0.1882488 0.058029618 0.14030464 0.04396985 0.03307907 0.21923089 0.007488758 0.03266573 -0.42147967 0.12489462 0.013992399 0.20831874 -0.13182251 -0.070305645 0.15274541 -0.06936649 0.16523528 -0.06925687 0.10620082 0.16697305 -0.04899199 0.00034560234 -0.14447762 -0.055472363 0.056019228 0.09642751 -0.014604861 -0.23250693 0.057877917 0.12020782 -0.13081643 -0.09859835 0.14577843 0.117125705 -0.08364046 -0.16712335 -0.14880593 0.06740705 0.0076507465 -0.015752569 -0.089632265 -0.022843886 0.04103839 -0.1611298 0.041144345 -0.030345857 -0.08779072 -0.011820066 0.061143186 -0.0030130893 -0.10957871 0.17633055 0.17544988 -0.12338639 0.19319572 -0.031420454 0.10773499 -0.019586122 0.12693699 0.0839927 0.20756815 0.008153469 0.028333407 0.15582639 0.058706716 0.2670932 0.024133986 0.02566756 -0.02265538 -0.12423119 -0.10239021 -0.101033926 0.15593353 -0.17265241 -0.062447425 -0.047309794 0.018813644 0.11156369 0.07978141 0.14974672 0.06794942 0.072685726 -0.07408629 0.041531708 0.089211114 0.21973112 -0.06482935 0.10750225 0.064221665
31 -0.01979279 -0.08907058 0.056346174 0.02733717 -0.0012753413 -0.056525137 -0.071126655 0.21430652 -0.18964654 -0.0709206 -0.06707042 -0.16769326 0.06692486 0.14632152 0.04455472 0.017087482 0.20992136 0.017489603 0.0074916985 -0.38573715 0.11179491 0.0049335714 0.18708044 -0.11386026 -0.045795023 0.13431528 -0.063957386 0.17498295 -0.056667153 0.09120447 0.16381055 -0.05959309 -0.001294663 -0.14552109 -0.057176933 0.043356963 0.11941581 -0.030119946 -0.21320765 0.038260646 0.07700758 -0.11873718 -0.08313792 0.14800282 0.108943604 -0.07588569 -0.16791537 -0.1318414 0.06749973 -0.0006132886 -0.029423628 -0.10012228 -0.052580345 0.039931327 -0.16712295 0.04311698 -0.028212477 -0.08632127 -0.0055044554 0.05466401 0.021863123 -0.08971513 0.19418415 0.17061202 -0.13043487 0.19254857 -0.019123899 0.12692475 -0.04895991 0.1396286 0.09107368 0.21101603 0.016627012 0.01780998 0.14809383 0.05177659 0.23682703 0.043597482 -0.0074104117 -0.035244837 -0.12554418 -0.11345598 -0.11274574 0.16098905 -0.17303981 -0.06140947 -0.050588932 0.01227854 0.09169233 0.06699015 0.13628103 0.061306834 0.066918805 -0.0532874 0.059365388 0.083452836 0.18912172 -0.07034566 0.09733276 0.060303804
25 0.0012389105 0.00413191 0.041988317 0.078899436 -0.0031332069 0.01435413 0.01595246 0.19807468 -0.22012793 -0.047907025 -0.05335373 -0.14040807 0.1757549 0.10513739 0.06953047 -0.105943315 0.20570622 0.05355937 -0.13207279 -0.3223408 0.046925098 -0.02999389 0.09231513 -0.04797596 -0.0012452598 0.075617194 -0.018923672 0.14977862 -0.056828182 0.07624119 0.10519219 -0.08434745 -0.01835686 -0.19467416 -0.07731017 0.037199806 0.15385221 -0.104355834 -0.19527094 -0.014395786 -0.053030744 -0.07322352 0.00604585 0.16565232 0.123218976 -0.083026074 -0.15803401 -0.12420001 0.03326076 -0.023247426 -0.037147496 -0.0960841 -0.1498944 -0.041168302 -0.19096902 -0.0016028207 0.013582894 -0.07548876 -0.034055747 0.031282958 0.10620768 -0.13677414 0.24327652 0.1539887 -0.15854862 0.24500896 0.0025522246 0.22863783 -0.19848356 0.15117472 0.10359065 0.23973756 0.07768684 0.034189474 0.10084141 0.100043125 0.23113927 0.15751365 -0.08984641 -0.030551668 -0.16206013 -0.13983487 -0.15194227 0.16506456 -0.18319002 -0.06523788 0.02348723 -0.027232518 0.097725905 0.038303904 0.1136348 0.076490134 0.06059438 -0.023507884 0.1749364 0.061853148 0.120519206 -0.11346603 0.104009435 0.018423894
29 -0.0062670005 -0.028018063 0.04767705 0.0614896 0.0026647917 -0.010601103 -0.018883256 0.19968817 -0.19811462 -0.056748807 -0.050583262 -0.15030675 0.13070415 0.118271366 0.05926614 -0.062983826 0.19177511 0.04729872 -0.08246936 -0.34723082 0.07063514 -0.013160792 0.13088365 -0.06710682 -0.020615302 0.09559712 -0.02813377 0.15975039 -0.07086616 0.07589004 0.12637421 -0.07996105 -0.009450843 -0.1769579 -0.06912248 0.037741903 0.14476474 -0.06672468 -0.20534243 0.013423974 0.004852291 -0.101071626 -0.04440506 0.16019326 0.119763896 -0.09305917 -0.16045198 -0.1285965 0.04476962 -0.008037074 -0.018483384 -0.10056465 -0.101703785 -0.009369172 -0.19213262 0.015073609 0.0005720235 -0.08664236 -0.04239689 0.036681004 0.07000232 -0.11347687 0.22790614 0.1527907 -0.1530066 0.2250201 -0.0056344657 0.1798209 -0.1299958 0.1363259 0.09709025 0.2189171 0.04588249 0.030695783 0.12048882 0.091109455 0.22774424 0.10979989 -0.055618104 -0.026946718 -0.1401249 -0.12260333 -0.13477191 0.14737006 -0.18345033 -0.050124366 0.002085957 -0.015490465 0.09273659 0.06628295 0.11384393 0.07064232 0.06602726 -0.034253154 0.14098375 0.0701976 0.15445314 -0.100742474 0.08772578 0.023429673
26 -0.0012977212 -0.0065429355 0.06248666 0.07496483 -0.012431564 0.0036501905 -0.016542464 0.22010438 -0.2261545 -0.046999976 -0.0501332 -0.1535455 0.17530046 0.11012124 0.06232936 -0.100982375 0.21276301 0.040684994 -0.12104875 -0.33936775 0.054883555 -0.03508991 0.10788198 -0.056365177 0.0026974971 0.09250232 -0.02658186 0.16803348 -0.05018385 0.07664397 0.12948042 -0.09349368 -0.0141862035 -0.21763924 -0.07070161 0.028984537 0.17943078 -0.11309816 -0.22182038 -0.009837318 -0.047297318 -0.08778071 -0.0035765725 0.16041145 0.11656638 -0.097096235 -0.17109947 -0.12355072 0.019254142 -0.018650675 -0.024265872 -0.093219854 -0.15775469 -0.013061331 -0.21839377 -0.017844703 0.011689225 -0.08517027 -0.048839398 0.030980859 0.10177431 -0.1298779 0.26235744 0.18954304 -0.16979192 0.25706473 0.011156418 0.23617236 -0.19180633 0.16736501 0.12015942 0.27165166 0.070352755 0.031239603 0.12189282 0.0940973 0.254539 0.15284057 -0.079274975 -0.010783367 -0.16687721 -0.15277879 -0.15468879 0.1791799 -0.21933061 -0.06227485 0.0072471774 -0.019655483 0.09722978 0.06634941 0.13701965 0.07834689 0.07121386 -0.035038244 0.17833129 0.08329219 0.13565691 -0.11650613 0.0994851 0.021679135
27 -0.0062471847 -0.008097099 0.042947724 0.087484814 0.012732178 -0.0020400786 0.0026820346 0.22465473 -0.24296917 -0.053372197 -0.06582936 -0.1567078 0.17859685 0.12095383 0.07877501 -0.1025671 0.20284045 0.066858016 -0.1196693 -0.33665755 0.059761994 -0.034428895 0.10915559 -0.041404694 0.019151652 0.08212225 -0.028331777 0.17681877 -0.06122669 0.07013593 0.11858366 -0.0710233 -0.03394531 -0.21928144 -0.0640142 0.039207116 0.1794273 -0.11133192 -0.21430923 -0.0019315875 -0.051065564 -0.10149343 -0.003951751 0.15964884 0.13101833 -0.08949136 -0.16273236 -0.11878201 0.031079864 -0.03635039 -0.018957108 -0.10022231 -0.15532903 -0.025676917 -0.2088217 -0.005487677 -0.00082112296 -0.088689804 -0.044813033 0.0319118 0.10942117 -0.13569956 0.26444954 0.17665072 -0.15928078 0.25074142 0.0073047313 0.24671376 -0.20686477 0.16713253 0.10365247 0.24730581 0.07301744 0.037875723 0.10005936 0.100094534 0.21339858 0.16061462 -0.085052125 -0.021254975 -0.16234072 -0.1407749 -0.15223616 0.16087404 -0.19867763 -0.06419472 0.035002925 -0.016406983 0.10872336 0.043923724 0.11643679 0.07503561 0.06784849 -0.03240608 0.20005327 0.06589898 0.13741417 -0.13068306 0.10019972 0.01566679
17 -0.0504589 -0.19008338 0.13470016 -0.042648863 -0.073064506 -0.13813654 -0.21143301 0.20885958 -0.12510185 -0.113343775 -0.0632634 -0.229373 -0.044573043 0.15772653 0.017331935 0.19450204 0.17698836 -0.1145158 0.17478767 -0.40098864 0.17367671 0.104054205 0.24094972 -0.20334472 -0.1340833 0.23203875 -0.10084335 0.15447731 -0.021572268 0.103536606 0.2025047 -0.059452485 0.034722682 -0.0896811 -0.06880419 0.06770442 0.12957841 0.03774028 -0.30187243 0.13423938 0.23772189 -0.09844123 -0.18324728 0.09030824 0.0887923 -0.09141022 -0.21118206 -0.1403579 0.07572499 0.062301707 -0.02555411 -0.08231826 0.06320708 0.17552651 -0.13426177 0.10160203 -0.034376327 -0.06933356 0.047589723 0.08004566 -0.11181963 -0.0648755 0.1293013 0.20929728 -0.1076438 0.15599144 -0.100075744 -0.045809217 0.15201367 0.15679619 0.07632254 0.26103264 -0.073279396 -0.048642684 0.21497375 0.0066376133 0.32397714 -0.12956011 0.10648169 -0.0040878574 -0.08960099 -0.09986471 -0.062342383 0.1693939 -0.21285355 -0.03768669 -0.22529064 0.054298855 0.10042062 0.17195468 0.18722087 0.07737065 0.042224355 -0.08956839 -0.10289172 0.13114682 0.2646738 0.0050071985 0.11273694 0.15264978
19 -0.012969185 -0.043672796 0.0590929 0.053866852 -0.009700011 -0.026012084 -0.021009194 0.23414238 -0.23114803 -0.06705966 -0.05949019 -0.1605189 0.14023536 0.12638283 0.058428377 -0.061472185 0.21323824 0.04790789 -0.09973048 -0.37272877 0.063926205 -0.021127634 0.13442862 -0.07109873 -0.0126437675 0.0963103 -0.027686471 0.17285477 -0.06376258 0.077274166 0.15073979 -0.07266505 -0.016491665 -0.19619842 -0.0645211 0.030858064 0.17711015 -0.10081324 -0.21312852 0.009243426 -0.023374809 -0.101312615 -0.01738168 0.14814714 0.13354672 -0.09380002 -0.15935633 -0.118760556 0.04686621 -0.016498158 -0.024567103 -0.09362406 -0.12361231 -0.00050060905 -0.20326129 0.008341013 0.0032401925 -0.0785719 -0.029341737 0.05113115 0.096071206 -0.12870565 0.25391495 0.18572138 -0.16229042 0.24110281 -0.010777264 0.20287012 -0.16307922 0.17173745 0.10859567 0.24843913 0.061304864 0.029857498 0.121219024 0.08580437 0.24112748 0.12472275 -0.06183681 -0.024596822 -0.13517895 -0.13530155 -0.15600245 0.17584822 -0.19191925 -0.061356407 -0.010032759 -0.00586243 0.11131409 0.071571946 0.12776867 0.07103204 0.07611294 -0.042596094 0.16557434 0.07912478 0.17288545 -0.12620752 0.115266114 0.018323904
15 0.005967476 -0.011492411 0.047449045 0.07225166 0.0026982396 -0.0020495232 -0.01353919 0.22915538 -0.23222436 -0.04404677 -0.06891641 -0.14476989 0.16828565 0.11577892 0.059707306 -0.09503138 0.213301 0.05892836 -0.12510972 -0.3492652 0.053731203 -0.035407025 0.100782715 -0.06268291 0.00591839 0.07547514 -0.033774476 0.1621977 -0.05936695 0.07431688 0.1210897 -0.07562285 -0.03185567 -0.21057914 -0.06712521 0.03608266 0.17904598 -0.10402423 -0.20494965 -0.017828649 -0.05596026 -0.09765706 0.0073022507 0.15969475 0.12417813 -0.1002339 -0.16710877 -0.12378038 0.033626538 -0.026248518 -0.031826157 -0.09594705 -0.14733332 -0.022626799 -0.19937517 -0.012203603 -0.0016421091 -0.08002014 -0.050710488 0.035194885 0.11833692 -0.12813471 0.25268903 0.17207952 -0.1532482 0.24712276 0.017297784 0.22341962 -0.19840363 0.15398584 0.10158009 0.23781209 0.06243073 0.031706132 0.1126048 0.090855755 0.21679176 0.15866879 -0.08269859 -0.022113498 -0.14473327 -0.1307918 -0.16177629 0.17082256 -0.20140718 -0.06270515 0.018947115 -0.004608559 0.099489994 0.053611588 0.115185335 0.07633889 0.08030026 -0.035702337 0.18921779 0.06601948 0.121431984 -0.11820267 0.09295562 0.019124178
22 -0.038517922 -0.08544623 0.05668336 0.02529118 0.0011487702 -0.05050559 -0.0674663 0.20430547 -0.18851137 -0.061251618 -0.06346445 -0.15461637 0.05239555 0.13111828 0.02721706 0.030412514 0.2272686 0.0069255973 0.018429093 -0.419772 0.1251859 0.0146032935 0.22948682 -0.12765704 -0.0818592 0.15307274 -0.07110446 0.1875425 -0.0802868 0.12735876 0.18241976 -0.05545436 0.0111334575 -0.13801832 -0.06665912 0.0556702 0.09171851 -0.022074904 -0.24244368 0.060094036 0.11623462 -0.12258694 -0.10608726 0.14143032 0.115057595 -0.08325607 -0.15320013 -0.1535824 0.0711775 0.0027196154 -0.01764566 -0.09166997 -0.03284115 0.03655384 -0.17064455 0.042901054 -0.03155994 -0.091364205 -0.023195947 0.04132066 0.0038948248 -0.109152004 0.17387404 0.15743306 -0.13412704 0.18684435 -0.02168453 0.10376066 -0.03944752 0.13258137 0.07988308 0.20578551 0.001557832 0.020155823 0.14620103 0.048639562 0.26636907 0.029390488 0.01145287 -0.023352072 -0.122348756 -0.1061527 -0.10674599 0.16985112 -0.18415496 -0.07444293 -0.052344233 0.024333576 0.09736769 0.07767691 0.14489008 0.054482713 0.063032575 -0.08358862 0.030052511 0.070537135 0.22951037 -0.06039332 0.10920306 0.071200185
18 -0.028126163 -0.07626269 0.06179943 0.026526215 -3.525216e-05 -0.053395804 -0.07140575 0.20415308 -0.18454075 -0.06577777 -0.057077564 -0.18203048 0.061394803 0.13707788 0.033356003 0.017800264 0.22031407 -0.0017955616 0.0019193002 -0.38711497 0.10406462 0.02381349 0.19993563 -0.11088269 -0.061223604 0.14016801 -0.07156025 0.17265278 -0.07098872 0.0969201 0.17423421 -0.0656723 -0.0014097847 -0.15421395 -0.06987604 0.03678147 0.114560075 -0.023296215 -0.22320956 0.04777523 0.07703986 -0.1088294 -0.09662812 0.12702857 0.1051302 -0.07728361 -0.16870628 -0.13369887 0.059735928 0.010723893 -0.024068499 -0.09943783 -0.04096013 0.035932202 -0.16310526 0.033256143 -0.015720746 -0.07993697 -0.013158093 0.05653352 0.0066160574 -0.11111463 0.19382246 0.16696987 -0.13764179 0.19017722 -0.037029177 0.11667652 -0.04744727 0.13650188 0.0889083 0.22918911 0.014301418 0.006779388 0.14022206 0.045196056 0.24204622 0.03087691 0.0023418649 -0.035628933 -0.12680797 -0.115074344 -0.10283627 0.16400598 -0.1755529 -0.07329511 -0.05780289 0.014010858 0.10258893 0.07721555 0.13247237 0.06724296 0.06754723 -0.07524415 0.057412326 0.08680516 0.21178964 -0.06279205 0.09467231 0.063366
21 -0.004456744 -0.046981066 0.047113303 0.053734686 -0.0111773545 -0.019141003 -0.03537086 0.20456907 -0.20410956 -0.052222516 -0.05966855 -0.16138473 0.13270067 0.12817656 0.048844196 -0.03733739 0.20419681 0.018574474 -0.0596954 -0.34684968 0.08746683 -0.010477597 0.14538755 -0.06921113 -0.011961269 0.0982359 -0.038756434 0.16342147 -0.05148298 0.07510332 0.14318526 -0.065746434 -0.0027162049 -0.18915212 -0.068098575 0.039914563 0.1596155 -0.07609303 -0.22054684 0.012672224 -0.009794936 -0.08527973 -0.02897162 0.1363726 0.120526165 -0.08117758 -0.17337047 -0.12106175 0.038518786 -0.0005919975 -0.03581458 -0.08823975 -0.11105814 0.01261309 -0.18361576 0.0015427236 -0.006743889 -0.07773289 -0.030834539 0.049400747 0.07159314 -0.12242201 0.2260906 0.17632313 -0.16076222 0.21545601 -0.02202297 0.17871517 -0.119204916 0.16247742 0.1058146 0.23902307 0.0479124 0.028516812 0.12641123 0.06568405 0.23443353 0.098610565 -0.054820854 -0.018394826 -0.13540295 -0.13635302 -0.14514585 0.16948514 -0.20177987 -0.062912695 -0.018520238 -0.0030782374 0.0969457 0.06444743 0.12607205 0.08366457 0.06246201 -0.04536098 0.13017654 0.08125368 0.1492268 -0.112076685 0.10665051 0.04232091
23 -0.010420596 -0.03669048 0.048322387 0.060699947 0.011900979 -0.005841671 -0.022840464 0.21518245 -0.23186007 -0.05052659 -0.06098486 -0.15664625 0.15756689 0.12616728 0.06901794 -0.08655254 0.2098851 0.03622462 -0.10966684 -0.35125026 0.061684422 -0.025030818 0.12078722 -0.060991216 0.00981519 0.09504219 -0.026062243 0.17369455 -0.05723151 0.07047681 0.11819391 -0.07039638 -0.029221687 -0.19736458 -0.057281964 0.033590708 0.16397065 -0.1009016 -0.19832776 0.004808526 -0.041577652 -0.09722696 -0.0053044385 0.15627448 0.12512653 -0.083933614 -0.17486453 -0.10699227 0.031787574 -0.0242654 -0.025644107 -0.09400918 -0.13815625 -0.0070354966 -0.20105651 -0.01011364 0.008478397 -0.07435973 -0.02875427 0.03820443 0.09337029 -0.12963372 0.2457942 0.17656825 -0.15388754 0.22791895 -0.0033006908 0.21139106 -0.17362157 0.15780605 0.10652961 0.2458607 0.05417888 0.028573047 0.10362716 0.07562222 0.22303453 0.13445854 -0.06926785 -0.018957242 -0.15088297 -0.13529754 -0.15460168 0.16243812 -0.19091095 -0.050513 0.0025428415 -0.0071286405 0.102275535 0.056841113 0.11797564 0.08522011 0.07353773 -0.026978662 0.16961804 0.08494815 0.14600092 -0.12479111 0.09312095 0.019155432
10 -0.013213551 -0.030089196 0.046038114 0.057758685 0.0006187455 -0.015726345 -0.01943949 0.2112267 -0.21317512 -0.049034998 -0.059670385 -0.16018507 0.13118573 0.10872643 0.057830095 -0.06677246 0.20474498 0.035218738 -0.06473607 -0.35346958 0.086182185 -0.03223676 0.14642422 -0.07054806 -0.020011362 0.10182094 -0.038262263 0.16493899 -0.07163017 0.07310323 0.1412987 -0.063248456 -0.006367203 -0.18963228 -0.056493174 0.022780662 0.14450474 -0.0678961 -0.21412374 0.020726264 -0.006250262 -0.108786896 -0.031263523 0.15900503 0.11248932 -0.09058922 -0.14408676 -0.12098819 0.041549306 -0.01525644 -0.028838882 -0.08902561 -0.104679 0.0006013451 -0.19617996 0.0035191912 -0.0065474715 -0.090844624 -0.041172802 0.047039405 0.08283497 -0.12270942 0.23109764 0.16557276 -0.15885876 0.22360483 -0.0057884743 0.20336778 -0.13740128 0.14120004 0.09963706 0.23327652 0.052853532 0.037226208 0.12989812 0.0867029 0.23601373 0.121713355 -0.04826939 -0.033276904 -0.14903232 -0.13394788 -0.14505588 0.16948837 -0.1994502 -0.07526567 0.0049996707 -0.0042947354 0.10231012 0.045670655 0.1225866 0.0726936 0.075536065 -0.04350015 0.1458734 0.076580405 0.1575935 -0.10720055 0.08944985 0.023083543
16 -0.0076254616 -0.024734251 0.052795336 0.07299038 0.0013562273 -0.005558337 -0.010234176 0.20058626 -0.21125026 -0.048244406 -0.05072301 -0.14798625 0.17354101 0.11676555 0.0669758 -0.10151857 0.20813493 0.049004104 -0.11441425 -0.33716315 0.058102712 -0.026370984 0.11576105 -0.058716647 0.016630998 0.08111903 -0.027121933 0.17615317 -0.06324062 0.076772325 0.11644719 -0.07031304 -0.019202493 -0.201241 -0.07057405 0.04098432 0.16802266 -0.10702951 -0.19799292 -0.009701335 -0.054568596 -0.09011425 0.010867936 0.15031135 0.13096374 -0.07930914 -0.16305107 -0.10473412 0.031090898 -0.033632852 -0.02151908 -0.08017384 -0.13388969 -0.030436883 -0.2073804 -0.005474265 -0.00031468616 -0.0705392 -0.037151802 0.040693015 0.11401042 -0.12585482 0.24530305 0.16307704 -0.14632912 0.22437412 0.00343237 0.22419852 -0.17930269 0.15726998 0.10154584 0.23769832 0.0634634 0.03636239 0.11091547 0.091449425 0.21347204 0.14065035 -0.07475028 -0.015106463 -0.14386222 -0.14257117 -0.15641364 0.15970254 -0.19652638 -0.058046278 0.009692089 -0.023100859 0.11016747 0.06418021 0.12641719 0.080781095 0.06417745 -0.041074574 0.18799248 0.069519386 0.13032079 -0.12416886 0.10049099 0.004513497
13 -0.019375758 -0.10020343 0.06565881 0.013979264 -0.010747399 -0.06011932 -0.093557484 0.22296931 -0.1836451 -0.085842416 -0.050010074 -0.1748413 0.05159468 0.13917463 0.04478235 0.04508274 0.21129717 -0.0068238117 0.020606624 -0.42270163 0.109357506 0.021617612 0.22060539 -0.13521501 -0.06075538 0.15461925 -0.057599317 0.176296 -0.063026145 0.11146582 0.16176626 -0.0695118 0.018113397 -0.14873311 -0.059580296 0.046007566 0.1028116 -0.033634584 -0.23233883 0.053839255 0.10349257 -0.12178229 -0.11003865 0.13231672 0.12391826 -0.09330362 -0.1685514 -0.14492637 0.059237614 0.020358847 -0.030966278 -0.108518615 -0.042831846 0.057329368 -0.16905987 0.03290178 -0.028030308 -0.08671083 -0.017614387 0.061013233 -0.00476475 -0.10218769 0.19413911 0.17915748 -0.1371322 0.19368634 -0.027324386 0.11225718 -0.04050606 0.13927235 0.09190822 0.22364645 0.01327577 0.010125486 0.14173974 0.046077184 0.25680315 0.015887238 0.007827873 -0.030661019 -0.1075626 -0.11796843 -0.11159404 0.16696729 -0.17361 -0.05782611 -0.06478568 0.015267039 0.095379405 0.091618076 0.12960166 0.06827009 0.067157045 -0.06692298 0.038907737 0.091733225 0.22502537 -0.06231735 0.11686694 0.06187599
12 -0.017362976 -0.08008751 0.06751881 0.030454092 -0.012364386 -0.054010857 -0.06740068 0.22736427 -0.20721343 -0.082023166 -0.0646231 -0.17241739 0.068680614 0.14699523 0.042311978 0.013271575 0.20815308 0.006749106 -0.007932435 -0.3863178 0.0936132 0.012195659 0.18984196 -0.11106974 -0.045364384 0.13622545 -0.04869716 0.16425082 -0.06688506 0.10819264 0.16092162 -0.07484333 0.00068520254 -0.16861662 -0.06995897 0.052221708 0.11962796 -0.038641743 -0.227384 0.039141577 0.06331198 -0.11283607 -0.08740441 0.14497118 0.12627052 -0.0831738 -0.17305852 -0.13817495 0.04777236 0.0036831228 -0.027575092 -0.091800116 -0.0647774 0.027979445 -0.17721842 0.033009615 -0.0271582 -0.093525335 -0.020300256 0.05088189 0.013581587 -0.11578121 0.1994564 0.18115148 -0.13952884 0.21052708 -0.0253691 0.12864059 -0.062463544 0.14714287 0.09863129 0.23425032 0.0118383495 0.017889587 0.15164472 0.055677414 0.25231668 0.039672907 0.00027641124 -0.02711321 -0.11683327 -0.126654 -0.10957406 0.154529 -0.17884007 -0.060605623 -0.04797254 0.0006116594 0.109257415 0.088547006 0.13182215 0.059966043 0.0736399 -0.06979518 0.059598457 0.09129737 0.19957791 -0.08256432 0.11561779 0.058267366
